<?xml version="1.0"?>
<opencv_storage>
<cascade>
  <stageType>BOOST</stageType>
  <featureType>HAAR</featureType>
  <height>60</height>
  <width>80</width>
  <stageParams>
    <boostType>GAB</boostType>
    <minHitRate>9.9900001287460327e-01</minHitRate>
    <maxFalseAlarm>5.0000000000000000e-01</maxFalseAlarm>
    <weightTrimRate>9.4999999999999996e-01</weightTrimRate>
    <maxDepth>1</maxDepth>
    <maxWeakCount>100</maxWeakCount></stageParams>
  <featureParams>
    <maxCatCount>0</maxCatCount>
    <featSize>1</featSize>
    <mode>ALL</mode></featureParams>
  <stageNum>2</stageNum>
  <stages>
    <!-- stage 0 -->
    <_>
      <maxWeakCount>3</maxWeakCount>
      <stageThreshold>-1.0855944156646729e+00</stageThreshold>
      <weakClassifiers>
        <_>
          <internalNodes>
            0 -1 1 -1.1103478819131851e-01</internalNodes>
          <leafValues>
            9.2046558856964111e-01 -9.5735609531402588e-01</leafValues></_>
        <_>
          <internalNodes>
            0 -1 4 -8.0441134050488472e-03</internalNodes>
          <leafValues>
            7.6006525754928589e-01 -7.7139568328857422e-01</leafValues></_>
        <_>
          <internalNodes>
            0 -1 2 -1.8874410539865494e-02</internalNodes>
          <leafValues>
            7.1185058355331421e-01 -8.8830363750457764e-01</leafValues></_></weakClassifiers></_>
    <!-- stage 1 -->
    <_>
      <maxWeakCount>5</maxWeakCount>
      <stageThreshold>-8.0906391143798828e-01</stageThreshold>
      <weakClassifiers>
        <_>
          <internalNodes>
            0 -1 0 -2.5595340132713318e-01</internalNodes>
          <leafValues>
            8.2782781124114990e-01 -6.5269458293914795e-01</leafValues></_>
        <_>
          <internalNodes>
            0 -1 5 -2.9169477056711912e-04</internalNodes>
          <leafValues>
            6.8301284313201904e-01 -7.1155691146850586e-01</leafValues></_>
        <_>
          <internalNodes>
            0 -1 7 1.4266553334891796e-02</internalNodes>
          <leafValues>
            -7.4767088890075684e-01 6.5468323230743408e-01</leafValues></_>
        <_>
          <internalNodes>
            0 -1 3 -6.6047897562384605e-03</internalNodes>
          <leafValues>
            6.4558815956115723e-01 -6.5621542930603027e-01</leafValues></_>
        <_>
          <internalNodes>
            0 -1 6 1.9407726358622313e-03</internalNodes>
          <leafValues>
            -6.3809835910797119e-01 5.6450414657592773e-01</leafValues></_></weakClassifiers></_></stages>
  <features>
    <_>
      <rects>
        <_>
          5 0 69 30 -1.</_>
        <_>
          28 10 23 10 9.</_></rects>
      <tilted>0</tilted></_>
    <_>
      <rects>
        <_>
          5 11 68 29 -1.</_>
        <_>
          22 11 34 29 2.</_></rects>
      <tilted>0</tilted></_>
    <_>
      <rects>
        <_>
          13 6 20 34 -1.</_>
        <_>
          23 6 10 34 2.</_></rects>
      <tilted>0</tilted></_>
    <_>
      <rects>
        <_>
          14 7 8 32 -1.</_>
        <_>
          18 7 4 32 2.</_></rects>
      <tilted>0</tilted></_>
    <_>
      <rects>
        <_>
          35 20 36 10 -1.</_>
        <_>
          47 20 12 10 3.</_></rects>
      <tilted>0</tilted></_>
    <_>
      <rects>
        <_>
          37 23 6 12 -1.</_>
        <_>
          37 29 6 6 2.</_></rects>
      <tilted>0</tilted></_>
    <_>
      <rects>
        <_>
          38 28 8 20 -1.</_>
        <_>
          38 38 8 10 2.</_></rects>
      <tilted>0</tilted></_>
    <_>
      <rects>
        <_>
          54 17 16 19 -1.</_>
        <_>
          62 17 8 19 2.</_></rects>
      <tilted>0</tilted></_></features></cascade>
</opencv_storage>
