<?xml version="1.0"?>
<opencv_storage>
<cascade>
  <stageType>BOOST</stageType>
  <featureType>HAAR</featureType>
  <height>77</height>
  <width>100</width>
  <stageParams>
    <boostType>GAB</boostType>
    <minHitRate>9.9500000476837158e-01</minHitRate>
    <maxFalseAlarm>5.0000000000000000e-01</maxFalseAlarm>
    <weightTrimRate>9.4999999999999996e-01</weightTrimRate>
    <maxDepth>1</maxDepth>
    <maxWeakCount>100</maxWeakCount></stageParams>
  <featureParams>
    <maxCatCount>0</maxCatCount>
    <featSize>1</featSize>
    <mode>BASIC</mode></featureParams>
  <stageNum>8</stageNum>
  <stages>
    <!-- stage 0 -->
    <_>
      <maxWeakCount>2</maxWeakCount>
      <stageThreshold>-6.3208431005477905e-01</stageThreshold>
      <weakClassifiers>
        <_>
          <internalNodes>
            0 -1 1 -2.3418602347373962e-01</internalNodes>
          <leafValues>
            4.0952381491661072e-01 -9.7176468372344971e-01</leafValues></_>
        <_>
          <internalNodes>
            0 -1 10 5.6681230489630252e-05</internalNodes>
          <leafValues>
            -9.8484051227569580e-01 3.3968040347099304e-01</leafValues></_></weakClassifiers></_>
    <!-- stage 1 -->
    <_>
      <maxWeakCount>3</maxWeakCount>
      <stageThreshold>-1.3318878412246704e+00</stageThreshold>
      <weakClassifiers>
        <_>
          <internalNodes>
            0 -1 15 3.3259354531764984e-02</internalNodes>
          <leafValues>
            -9.3396228551864624e-01 2.4528302252292633e-01</leafValues></_>
        <_>
          <internalNodes>
            0 -1 4 -9.9467020481824875e-03</internalNodes>
          <leafValues>
            6.1026597023010254e-01 -8.4295654296875000e-01</leafValues></_>
        <_>
          <internalNodes>
            0 -1 12 -3.3778117503970861e-03</internalNodes>
          <leafValues>
            4.4503101706504822e-01 -8.6333513259887695e-01</leafValues></_></weakClassifiers></_>
    <!-- stage 2 -->
    <_>
      <maxWeakCount>2</maxWeakCount>
      <stageThreshold>-6.7843323945999146e-01</stageThreshold>
      <weakClassifiers>
        <_>
          <internalNodes>
            0 -1 5 -8.4632426500320435e-02</internalNodes>
          <leafValues>
            1.5686275064945221e-01 -9.0186917781829834e-01</leafValues></_>
        <_>
          <internalNodes>
            0 -1 14 3.5871576983481646e-05</internalNodes>
          <leafValues>
            -1. 2.2343592345714569e-01</leafValues></_></weakClassifiers></_>
    <!-- stage 3 -->
    <_>
      <maxWeakCount>2</maxWeakCount>
      <stageThreshold>-6.8962919712066650e-01</stageThreshold>
      <weakClassifiers>
        <_>
          <internalNodes>
            0 -1 3 -3.3158086240291595e-02</internalNodes>
          <leafValues>
            3.1707316637039185e-01 -8.8392859697341919e-01</leafValues></_>
        <_>
          <internalNodes>
            0 -1 11 -2.3431834415532649e-04</internalNodes>
          <leafValues>
            1.9429939985275269e-01 -1.</leafValues></_></weakClassifiers></_>
    <!-- stage 4 -->
    <_>
      <maxWeakCount>2</maxWeakCount>
      <stageThreshold>-1.0706216096878052e+00</stageThreshold>
      <weakClassifiers>
        <_>
          <internalNodes>
            0 -1 0 -1.1810626089572906e-01</internalNodes>
          <leafValues>
            -1.4285714924335480e-01 -9.5580112934112549e-01</leafValues></_>
        <_>
          <internalNodes>
            0 -1 7 1.0267148027196527e-03</internalNodes>
          <leafValues>
            -9.2776447534561157e-01 1.9991967082023621e-01</leafValues></_></weakClassifiers></_>
    <!-- stage 5 -->
    <_>
      <maxWeakCount>2</maxWeakCount>
      <stageThreshold>-6.4025515317916870e-01</stageThreshold>
      <weakClassifiers>
        <_>
          <internalNodes>
            0 -1 17 -2.9997300356626511e-02</internalNodes>
          <leafValues>
            4.0000000596046448e-01 -8.3829784393310547e-01</leafValues></_>
        <_>
          <internalNodes>
            0 -1 2 -1.8798929452896118e-01</internalNodes>
          <leafValues>
            1.9804270565509796e-01 -1.</leafValues></_></weakClassifiers></_>
    <!-- stage 6 -->
    <_>
      <maxWeakCount>2</maxWeakCount>
      <stageThreshold>-1.0299056768417358e+00</stageThreshold>
      <weakClassifiers>
        <_>
          <internalNodes>
            0 -1 9 6.8338087294250727e-04</internalNodes>
          <leafValues>
            -9.7175139188766479e-01 -1.4772726595401764e-01</leafValues></_>
        <_>
          <internalNodes>
            0 -1 8 -2.2888605599291623e-05</internalNodes>
          <leafValues>
            2.6138582825660706e-01 -8.8217842578887939e-01</leafValues></_></weakClassifiers></_>
    <!-- stage 7 -->
    <_>
      <maxWeakCount>3</maxWeakCount>
      <stageThreshold>-1.2567995786666870e+00</stageThreshold>
      <weakClassifiers>
        <_>
          <internalNodes>
            0 -1 6 2.6119118556380272e-03</internalNodes>
          <leafValues>
            -8.7082403898239136e-01 2.5925925374031067e-01</leafValues></_>
        <_>
          <internalNodes>
            0 -1 16 3.5827361047267914e-02</internalNodes>
          <leafValues>
            -7.2881883382797241e-01 3.9091402292251587e-01</leafValues></_>
        <_>
          <internalNodes>
            0 -1 13 -1.8393087666481733e-03</internalNodes>
          <leafValues>
            -1. 3.4284329414367676e-01</leafValues></_></weakClassifiers></_></stages>
  <features>
    <_>
      <rects>
        <_>
          0 13 93 20 -1.</_>
        <_>
          31 13 31 20 3.</_></rects>
      <tilted>0</tilted></_>
    <_>
      <rects>
        <_>
          1 19 99 36 -1.</_>
        <_>
          34 19 33 36 3.</_></rects>
      <tilted>0</tilted></_>
    <_>
      <rects>
        <_>
          8 15 87 44 -1.</_>
        <_>
          37 15 29 44 3.</_></rects>
      <tilted>0</tilted></_>
    <_>
      <rects>
        <_>
          12 7 78 5 -1.</_>
        <_>
          38 7 26 5 3.</_></rects>
      <tilted>0</tilted></_>
    <_>
      <rects>
        <_>
          12 29 20 9 -1.</_>
        <_>
          22 29 10 9 2.</_></rects>
      <tilted>0</tilted></_>
    <_>
      <rects>
        <_>
          16 5 72 17 -1.</_>
        <_>
          40 5 24 17 3.</_></rects>
      <tilted>0</tilted></_>
    <_>
      <rects>
        <_>
          25 15 6 28 -1.</_>
        <_>
          25 15 3 14 2.</_>
        <_>
          28 29 3 14 2.</_></rects>
      <tilted>0</tilted></_>
    <_>
      <rects>
        <_>
          45 19 15 12 -1.</_>
        <_>
          45 25 15 6 2.</_></rects>
      <tilted>0</tilted></_>
    <_>
      <rects>
        <_>
          48 35 1 4 -1.</_>
        <_>
          48 37 1 2 2.</_></rects>
      <tilted>0</tilted></_>
    <_>
      <rects>
        <_>
          48 37 9 5 -1.</_>
        <_>
          51 37 3 5 3.</_></rects>
      <tilted>0</tilted></_>
    <_>
      <rects>
        <_>
          49 38 6 1 -1.</_>
        <_>
          51 38 2 1 3.</_></rects>
      <tilted>0</tilted></_>
    <_>
      <rects>
        <_>
          50 38 5 8 -1.</_>
        <_>
          50 42 5 4 2.</_></rects>
      <tilted>0</tilted></_>
    <_>
      <rects>
        <_>
          53 31 33 3 -1.</_>
        <_>
          64 31 11 3 3.</_></rects>
      <tilted>0</tilted></_>
    <_>
      <rects>
        <_>
          54 35 22 18 -1.</_>
        <_>
          54 44 22 9 2.</_></rects>
      <tilted>0</tilted></_>
    <_>
      <rects>
        <_>
          56 37 4 3 -1.</_>
        <_>
          58 37 2 3 2.</_></rects>
      <tilted>0</tilted></_>
    <_>
      <rects>
        <_>
          65 19 28 17 -1.</_>
        <_>
          79 19 14 17 2.</_></rects>
      <tilted>0</tilted></_>
    <_>
      <rects>
        <_>
          70 15 30 23 -1.</_>
        <_>
          80 15 10 23 3.</_></rects>
      <tilted>0</tilted></_>
    <_>
      <rects>
        <_>
          70 30 22 44 -1.</_>
        <_>
          70 30 11 22 2.</_>
        <_>
          81 52 11 22 2.</_></rects>
      <tilted>0</tilted></_></features></cascade>
</opencv_storage>
